{
  "trainer": "torch",
  "steps": 12,
  "beta": 0.82,
  "threshold": 1.0,
  "class_names": [
    "normal",
    "delayed",
    "filtered"
  ],
  "feature_ranges": {
    "inter_packet_time_us": {
      "min": 422.82,
      "max": 16755.27
    },
    "payload_size": {
      "min": 0.0,
      "max": 108.35
    },
    "rtt_us": {
      "min": 40000.0,
      "max": 4968706.01
    }
  },
  "input_layer": {
    "weight": [
      [
        -1.7000786066055298,
        1.7786996364593506,
        1.2993533611297607,
        -1.4691139459609985,
        1.3700579404830933,
        -1.852398157119751,
        -0.5257392525672913,
        -2.6260693073272705,
        -0.24160756170749664
      ],
      [
        -3.0308077335357666,
        1.776566505432129,
        1.2054253816604614,
        -2.6543712615966797,
        1.5782649517059326,
        -2.880333662033081,
        0.39145487546920776,
        -3.2638704776763916,
        -0.7372439503669739
      ],
      [
        1.6475780010223389,
        -2.803222894668579,
        -2.177389621734619,
        1.663522481918335,
        -2.044384479522705,
        1.7994976043701172,
        1.6113415956497192,
        1.3184202909469604,
        0.5781818628311157
      ],
      [
        -2.2310941219329834,
        1.5725667476654053,
        1.1818289756774902,
        -1.9809296131134033,
        1.3323506116867065,
        -2.1398980617523193,
        -0.867947518825531,
        -3.4803626537323,
        -0.31317538022994995
      ],
      [
        0.7189273834228516,
        -1.9091249704360962,
        -1.603419303894043,
        0.7890442609786987,
        -1.392773151397705,
        0.7325412631034851,
        0.5468298196792603,
        1.8774594068527222,
        0.03350367397069931
      ],
      [
        0.8987246155738831,
        -3.5827369689941406,
        -2.9876151084899902,
        0.8905032873153687,
        -2.6398565769195557,
        0.9081401824951172,
        -2.1449899673461914,
        -0.2091122418642044,
        -1.4775766134262085
      ],
      [
        -2.9690768718719482,
        2.1086137294769287,
        1.424385666847229,
        -3.034111261367798,
        1.647171974182129,
        -3.2846426963806152,
        0.30548834800720215,
        -4.258211135864258,
        -0.8311362862586975
      ],
      [
        0.749123215675354,
        -2.8050591945648193,
        -2.583904266357422,
        0.7575416564941406,
        -2.8544909954071045,
        0.7424978017807007,
        1.5722028017044067,
        -0.04188457131385803,
        1.4219317436218262
      ],
      [
        1.2734359502792358,
        -3.0578346252441406,
        -2.3032164573669434,
        1.1023873090744019,
        -2.0334739685058594,
        1.3273028135299683,
        0.8274802565574646,
        0.6681838035583496,
        0.375750869512558
      ],
      [
        2.6715738773345947,
        -1.8196336030960083,
        -2.9350168704986572,
        2.0333235263824463,
        -1.500304102897644,
        2.234065532684326,
        -4.344727993011475,
        -2.6320745944976807,
        -4.10885763168335
      ],
      [
        -1.916024923324585,
        1.2964134216308594,
        1.1254626512527466,
        -1.7742167711257935,
        1.2935371398925781,
        -2.467139959335327,
        -0.016032958403229713,
        -2.726416826248169,
        -0.3920930325984955
      ],
      [
        -4.66823148727417,
        2.170290231704712,
        1.5886222124099731,
        -4.2601447105407715,
        1.4252052307128906,
        -4.293501853942871,
        0.028719676658511162,
        -5.445296764373779,
        -0.022299453616142273
      ],
      [
        -1.7065812349319458,
        0.9031945466995239,
        0.7266057729721069,
        -1.4118337631225586,
        0.45531418919563293,
        -1.4352779388427734,
        -0.5290772318840027,
        -1.0612921714782715,
        2.9463019371032715
      ],
      [
        3.1323397159576416,
        -4.27210807800293,
        -3.584693431854248,
        3.094062089920044,
        -3.43430233001709,
        3.1100471019744873,
        -1.7074720859527588,
        0.09762916713953018,
        -0.9663807153701782
      ],
      [
        3.1869874000549316,
        -3.0044500827789307,
        -2.059499502182007,
        3.156228542327881,
        -1.7743818759918213,
        3.4021894931793213,
        -1.6795711517333984,
        0.16591070592403412,
        -0.9075958728790283
      ],
      [
        4.151607036590576,
        -3.945746660232544,
        -3.4462080001831055,
        4.171510219573975,
        -2.9715590476989746,
        4.116098403930664,
        -2.330005407333374,
        0.29385828971862793,
        -1.3110724687576294
      ]
    ],
    "bias": [
      -0.12882328033447266,
      0.16342179477214813,
      -0.34674742817878723,
      -0.014218841679394245,
      -0.3077850341796875,
      0.14132335782051086,
      0.2003355324268341,
      -1.264473795890808,
      -0.09137996286153793,
      -0.2601260840892792,
      0.10089417546987534,
      0.2921430766582489,
      0.2933582067489624,
      0.22686971724033356,
      0.16816659271717072,
      0.24092337489128113
    ]
  },
  "output_layer": {
    "weight": [
      [
        -1.595615029335022,
        -1.4622430801391602,
        -2.0572640895843506,
        -1.2699458599090576,
        0.33511975407600403,
        -1.9941127300262451,
        -2.025942802429199,
        5.53325080871582,
        -0.5974399447441101,
        -6.310783386230469,
        -1.113451361656189,
        -3.136605739593506,
        0.6193555593490601,
        0.8762760162353516,
        0.5119903087615967,
        1.5571774244308472
      ],
      [
        -2.13822340965271,
        -1.449847936630249,
        1.2173677682876587,
        -1.1158528327941895,
        -0.17527556419372559,
        3.8300788402557373,
        -1.758994698524475,
        -5.466145038604736,
        1.0939462184906006,
        6.404940128326416,
        -0.9708244800567627,
        -2.91615891456604,
        -0.8416124582290649,
        -1.8066151142120361,
        -1.6201622486114502,
        -2.4330334663391113
      ],
      [
        0.8737824559211731,
        0.95725017786026,
        -2.2693779468536377,
        0.3305431008338928,
        -0.9052906036376953,
        -7.266044616699219,
        0.981173038482666,
        -4.291757106781006,
        -1.9018843173980713,
        -7.909773826599121,
        0.8071258068084717,
        2.54580020904541,
        0.022085335105657578,
        -3.3756227493286133,
        -1.905373454093933,
        -2.623087167739868
      ]
    ],
    "bias": [
      0.40446311235427856,
      0.6562113165855408,
      0.562701404094696
    ]
  }
}